digraph Tree {
node [shape=box] ;
0 [label="Draft Season <= 2005.5\ngini = 0.747\nsamples = 11110\nvalue = [2358, 3128, 3009, 2615]\nclass = 7-11 Seasons"] ;
1 [label="Winshares <= 2.25\ngini = 0.722\nsamples = 9262\nvalue = [1328, 3128, 3009, 1797]\nclass = 7-11 Seasons"] ;
0 -> 1 [labeldistance=2.5, labelangle=45, headlabel="True"] ;
3 [label="gini = 0.723\nsamples = 3335\nvalue = [1156, 877, 396, 906]\nclass = 0-7 Seasons"] ;
1 -> 3 ;
4 [label="Draft Season <= 2002.5\ngini = 0.638\nsamples = 5927\nvalue = [172, 2251, 2613, 891]\nclass = 11 - 14 Seasons"] ;
1 -> 4 ;
7 [label="gini = 0.622\nsamples = 5218\nvalue = [168, 1703, 2613, 734]\nclass = 11 - 14 Seasons"] ;
4 -> 7 ;
8 [label="gini = 0.354\nsamples = 709\nvalue = [4, 548, 0, 157]\nclass = 7-11 Seasons"] ;
4 -> 8 ;
2 [label="Draft Season <= 2009.5\ngini = 0.493\nsamples = 1848\nvalue = [1030, 0, 0, 818]\nclass = 0-7 Seasons"] ;
0 -> 2 [labeldistance=2.5, labelangle=-45, headlabel="False"] ;
5 [label="gini = 0.39\nsamples = 1113\nvalue = [295, 0, 0, 818]\nclass = 14-21 Seasons"] ;
2 -> 5 ;
6 [label="gini = 0.0\nsamples = 735\nvalue = [735, 0, 0, 0]\nclass = 0-7 Seasons"] ;
2 -> 6 ;
}